{
  "sizes": [
    3,
    3,
    19
  ],
  "layers": [
    {
      "0": {},
      "1": {},
      "2": {}
    },
    {
      "0": {
        "bias": -3.290889263153076,
        "weights": {
          "0": 7.47654390335083,
          "1": -4.6758503913879395,
          "2": 65.56229400634766
        }
      },
      "1": {
        "bias": -2.460603952407837,
        "weights": {
          "0": -37.749244689941406,
          "1": -26.427600860595703,
          "2": -44.35650634765625
        }
      },
      "2": {
        "bias": -0.6431587338447571,
        "weights": {
          "0": 32.236915588378906,
          "1": 59.32059860229492,
          "2": 19.92417335510254
        }
      }
    },
    {
      "0": {
        "bias": -21.021291732788086,
        "weights": {
          "0": -12.754371643066406,
          "1": 25.329185485839844,
          "2": -16.00780487060547
        }
      },
      "1": {
        "bias": 0.991120457649231,
        "weights": {
          "0": -2.2517457008361816,
          "1": -1.5586419105529785,
          "2": -29.79523277282715
        }
      },
      "2": {
        "bias": 12.682572364807129,
        "weights": {
          "0": -2.8025870323181152,
          "1": -18.0860652923584,
          "2": -62.70304489135742
        }
      },
      "4": {
        "bias": 2.9864017963409424,
        "weights": {
          "0": -2.740020275115967,
          "1": -12.052939414978027,
          "2": -10.794271469116211
        }
      },
      "5": {
        "bias": 8.477922439575195,
        "weights": {
          "0": 5.230315208435059,
          "1": -32.02145004272461,
          "2": -22.351348876953125
        }
      },
      "6": {
        "bias": 4.824596405029297,
        "weights": {
          "0": -19.219104766845703,
          "1": -22.400634765625,
          "2": -10.13223648071289
        }
      },
      "7": {
        "bias": 1.8028396368026733,
        "weights": {
          "0": -4.768893718719482,
          "1": -19.81175994873047,
          "2": -6.110433578491211
        }
      },
      "9": {
        "bias": 1.619667887687683,
        "weights": {
          "0": -9.101346015930176,
          "1": -23.4654541015625,
          "2": -3.2836544513702393
        }
      },
      "10": {
        "bias": 0.3283643126487732,
        "weights": {
          "0": -8.467085838317871,
          "1": -21.25790786743164,
          "2": -1.1782522201538086
        }
      },
      "11": {
        "bias": -1.7175992727279663,
        "weights": {
          "0": -19.972482681274414,
          "1": -18.12257194519043,
          "2": 4.17449426651001
        }
      },
      "12": {
        "bias": -3.891759157180786,
        "weights": {
          "0": -11.93504810333252,
          "1": -12.407682418823242,
          "2": 5.35686731338501
        }
      },
      "13": {
        "bias": -14.700958251953125,
        "weights": {
          "0": -36.29961013793945,
          "1": -12.05648136138916,
          "2": 23.77777099609375
        }
      },
      "14": {
        "bias": -5.3264288902282715,
        "weights": {
          "0": -2.0193278789520264,
          "1": -9.137468338012695,
          "2": 4.430306911468506
        }
      },
      "15": {
        "bias": -25.532970428466797,
        "weights": {
          "0": -12.396071434020996,
          "1": -15.794212341308594,
          "2": 30.423095703125
        }
      },
      "16": {
        "bias": -16.2850399017334,
        "weights": {
          "0": 28.45792579650879,
          "1": -8.4199857711792,
          "2": -1.743739128112793
        }
      },
      "-5": {
        "bias": -8.9771089553833,
        "weights": {
          "0": 0.9917710423469543,
          "1": -7.2857866287231445,
          "2": 6.233118534088135
        }
      },
      "-3": {
        "bias": -13.033967018127441,
        "weights": {
          "0": 1.0427937507629395,
          "1": -9.905892372131348,
          "2": 11.216975212097168
        }
      },
      "-2": {
        "bias": -10.660189628601074,
        "weights": {
          "0": 10.506841659545898,
          "1": -7.086695671081543,
          "2": 3.3334696292877197
        }
      },
      "-1": {
        "bias": -10.904850959777832,
        "weights": {
          "0": -0.6821098327636719,
          "1": -7.770946979522705,
          "2": 9.02595329284668
        }
      }
    }
  ],
  "outputLookup": true,
  "inputLookup": true,
  "activation": "sigmoid",
  "trainOpts": {
    "iterations": 50000,
    "errorThresh": 0.005,
    "log": true,
    "logPeriod": 1000,
    "learningRate": 0.3,
    "momentum": 0.1,
    "callbackPeriod": 10,
    "beta1": 0.9,
    "beta2": 0.999,
    "epsilon": 1e-8
  }
}